0.5913510918617249 -1.2045423984527588 0.04945951700210571 0.5963990688323975 -1.5197206735610962 -0.9449825286865234 -0.8948211669921875 1.609467625617981 1.3460191488265991 -0.7405944466590881 0.32589977979660034 0.1457327902317047 -3.7933509349823 0.18060776591300964 -2.507028341293335 -0.5867847204208374 1.1296052932739258 -0.4911762773990631 0.5561031699180603 -1.371735692024231 -0.6912727355957031 -2.30816912651062 -3.1616427898406982 2.783656597137451
0.054627932608127594 0.37865784764289856 -0.30488210916519165 -0.3487206697463989 0.47987619042396545 -0.15627925097942352 0.16224853694438934 -0.40266045928001404 -0.9615630507469177 -0.19831015169620514 -0.13175015151500702 0.44158193469047546 5.508209228515625 1.0120861530303955 0.09577438980340958 -5.741461753845215 2.2685699462890625 2.5517094135284424 -3.1196341514587402 -0.5299698114395142 3.5846991539001465 -1.7006324529647827 1.7096786499023438 -3.876051664352417
0.09977114945650101 -6.807507514953613 -6.436925888061523
2.5011682510375977